digraph Tree {
node [shape=box, style="filled, rounded", color="black", fontname=helvetica] ;
edge [fontname=helvetica] ;
0 [label=<X<SUB>0</SUB> &le; -191.593<br/>gini = 0.9<br/>samples = 320<br/>value = [32, 33, 35, 29, 32, 31, 29, 30, 35, 34]>, fillcolor="#7be53900"] ;
1 [label=<X<SUB>2</SUB> &le; 13.904<br/>gini = 0.848<br/>samples = 197<br/>value = [1, 30, 31, 1, 32, 29, 7, 30, 35, 1]>, fillcolor="#e539c005"] ;
0 -> 1 [labeldistance=2.5, labelangle=45, headlabel="True"] ;
2 [label=<X<SUB>0</SUB> &le; -328.807<br/>gini = 0.821<br/>samples = 157<br/>value = [1, 3, 31, 1, 24, 28, 4, 29, 35, 1]>, fillcolor="#e539c008"] ;
1 -> 2 ;
3 [label=<X<SUB>3</SUB> &le; -5.849<br/>gini = 0.769<br/>samples = 113<br/>value = [0, 0, 4, 0, 21, 22, 2, 28, 35, 1]>, fillcolor="#e539c015"] ;
2 -> 3 ;
4 [label=<X<SUB>1</SUB> &le; 87.443<br/>gini = 0.531<br/>samples = 44<br/>value = [0, 0, 1, 0, 3, 13, 0, 0, 27, 0]>, fillcolor="#e539c073"] ;
3 -> 4 ;
5 [label=<X<SUB>10</SUB> &le; -3.894<br/>gini = 0.38<br/>samples = 35<br/>value = [0, 0, 1, 0, 2, 5, 0, 0, 27, 0]>, fillcolor="#e539c0bb"] ;
4 -> 5 ;
6 [label=<X<SUB>35</SUB> &le; -3.336<br/>gini = 0.64<br/>samples = 5<br/>value = [0, 0, 1, 0, 2, 2, 0, 0, 0, 0]>, fillcolor="#39e5c500"] ;
5 -> 6 ;
7 [label=<gini = 0.0<br/>samples = 2<br/>value = [0, 0, 0, 0, 2, 0, 0, 0, 0, 0]>, fillcolor="#39e5c5ff"] ;
6 -> 7 ;
8 [label=<X<SUB>24</SUB> &le; -2.602<br/>gini = 0.444<br/>samples = 3<br/>value = [0, 0, 1, 0, 0, 2, 0, 0, 0, 0]>, fillcolor="#399de57f"] ;
6 -> 8 ;
9 [label=<gini = 0.0<br/>samples = 1<br/>value = [0, 0, 1, 0, 0, 0, 0, 0, 0, 0]>, fillcolor="#7be539ff"] ;
8 -> 9 ;
10 [label=<gini = 0.0<br/>samples = 2<br/>value = [0, 0, 0, 0, 0, 2, 0, 0, 0, 0]>, fillcolor="#399de5ff"] ;
8 -> 10 ;
11 [label=<X<SUB>9</SUB> &le; -3.19<br/>gini = 0.18<br/>samples = 30<br/>value = [0, 0, 0, 0, 0, 3, 0, 0, 27, 0]>, fillcolor="#e539c0e3"] ;
5 -> 11 ;
12 [label=<gini = 0.0<br/>samples = 2<br/>value = [0, 0, 0, 0, 0, 2, 0, 0, 0, 0]>, fillcolor="#399de5ff"] ;
11 -> 12 ;
13 [label=<X<SUB>0</SUB> &le; -528.417<br/>gini = 0.069<br/>samples = 28<br/>value = [0, 0, 0, 0, 0, 1, 0, 0, 27, 0]>, fillcolor="#e539c0f6"] ;
11 -> 13 ;
14 [label=<X<SUB>6</SUB> &le; -6.784<br/>gini = 0.5<br/>samples = 2<br/>value = [0, 0, 0, 0, 0, 1, 0, 0, 1, 0]>, fillcolor="#399de500"] ;
13 -> 14 ;
15 [label=<gini = 0.0<br/>samples = 1<br/>value = [0, 0, 0, 0, 0, 0, 0, 0, 1, 0]>, fillcolor="#e539c0ff"] ;
14 -> 15 ;
16 [label=<gini = 0.0<br/>samples = 1<br/>value = [0, 0, 0, 0, 0, 1, 0, 0, 0, 0]>, fillcolor="#399de5ff"] ;
14 -> 16 ;
17 [label=<gini = 0.0<br/>samples = 26<br/>value = [0, 0, 0, 0, 0, 0, 0, 0, 26, 0]>, fillcolor="#e539c0ff"] ;
13 -> 17 ;
18 [label=<X<SUB>10</SUB> &le; -12.09<br/>gini = 0.198<br/>samples = 9<br/>value = [0, 0, 0, 0, 1, 8, 0, 0, 0, 0]>, fillcolor="#399de5df"] ;
4 -> 18 ;
19 [label=<gini = 0.0<br/>samples = 1<br/>value = [0, 0, 0, 0, 1, 0, 0, 0, 0, 0]>, fillcolor="#39e5c5ff"] ;
18 -> 19 ;
20 [label=<gini = 0.0<br/>samples = 8<br/>value = [0, 0, 0, 0, 0, 8, 0, 0, 0, 0]>, fillcolor="#399de5ff"] ;
18 -> 20 ;
21 [label=<X<SUB>1</SUB> &le; 27.569<br/>gini = 0.734<br/>samples = 69<br/>value = [0, 0, 3, 0, 18, 9, 2, 28, 8, 1]>, fillcolor="#a339e532"] ;
3 -> 21 ;
22 [label=<X<SUB>0</SUB> &le; -684.843<br/>gini = 0.408<br/>samples = 33<br/>value = [0, 0, 1, 0, 3, 3, 0, 25, 1, 0]>, fillcolor="#a339e5bb"] ;
21 -> 22 ;
23 [label=<gini = 0.0<br/>samples = 2<br/>value = [0, 0, 0, 0, 2, 0, 0, 0, 0, 0]>, fillcolor="#39e5c5ff"] ;
22 -> 23 ;
24 [label=<X<SUB>26</SUB> &le; 2.428<br/>gini = 0.337<br/>samples = 31<br/>value = [0, 0, 1, 0, 1, 3, 0, 25, 1, 0]>, fillcolor="#a339e5c8"] ;
22 -> 24 ;
25 [label=<X<SUB>3</SUB> &le; -0.45<br/>gini = 0.191<br/>samples = 28<br/>value = [0, 0, 0, 0, 0, 3, 0, 25, 0, 0]>, fillcolor="#a339e5e0"] ;
24 -> 25 ;
26 [label=<X<SUB>10</SUB> &le; -3.225<br/>gini = 0.444<br/>samples = 3<br/>value = [0, 0, 0, 0, 0, 2, 0, 1, 0, 0]>, fillcolor="#399de57f"] ;
25 -> 26 ;
27 [label=<gini = 0.0<br/>samples = 1<br/>value = [0, 0, 0, 0, 0, 0, 0, 1, 0, 0]>, fillcolor="#a339e5ff"] ;
26 -> 27 ;
28 [label=<gini = 0.0<br/>samples = 2<br/>value = [0, 0, 0, 0, 0, 2, 0, 0, 0, 0]>, fillcolor="#399de5ff"] ;
26 -> 28 ;
29 [label=<X<SUB>6</SUB> &le; 6.387<br/>gini = 0.077<br/>samples = 25<br/>value = [0, 0, 0, 0, 0, 1, 0, 24, 0, 0]>, fillcolor="#a339e5f4"] ;
25 -> 29 ;
30 [label=<gini = 0.0<br/>samples = 24<br/>value = [0, 0, 0, 0, 0, 0, 0, 24, 0, 0]>, fillcolor="#a339e5ff"] ;
29 -> 30 ;
31 [label=<gini = 0.0<br/>samples = 1<br/>value = [0, 0, 0, 0, 0, 1, 0, 0, 0, 0]>, fillcolor="#399de5ff"] ;
29 -> 31 ;
32 [label=<X<SUB>15</SUB> &le; -6.209<br/>gini = 0.667<br/>samples = 3<br/>value = [0, 0, 1, 0, 1, 0, 0, 0, 1, 0]>, fillcolor="#7be53900"] ;
24 -> 32 ;
33 [label=<gini = 0.0<br/>samples = 1<br/>value = [0, 0, 0, 0, 1, 0, 0, 0, 0, 0]>, fillcolor="#39e5c5ff"] ;
32 -> 33 ;
34 [label=<X<SUB>10</SUB> &le; 1.793<br/>gini = 0.5<br/>samples = 2<br/>value = [0, 0, 1, 0, 0, 0, 0, 0, 1, 0]>, fillcolor="#7be53900"] ;
32 -> 34 ;
35 [label=<gini = 0.0<br/>samples = 1<br/>value = [0, 0, 1, 0, 0, 0, 0, 0, 0, 0]>, fillcolor="#7be539ff"] ;
34 -> 35 ;
36 [label=<gini = 0.0<br/>samples = 1<br/>value = [0, 0, 0, 0, 0, 0, 0, 0, 1, 0]>, fillcolor="#e539c0ff"] ;
34 -> 36 ;
37 [label=<X<SUB>34</SUB> &le; -2.824<br/>gini = 0.747<br/>samples = 36<br/>value = [0, 0, 2, 0, 15, 6, 2, 3, 7, 1]>, fillcolor="#39e5c546"] ;
21 -> 37 ;
38 [label=<gini = 0.0<br/>samples = 10<br/>value = [0, 0, 0, 0, 10, 0, 0, 0, 0, 0]>, fillcolor="#39e5c5ff"] ;
37 -> 38 ;
39 [label=<X<SUB>6</SUB> &le; 8.737<br/>gini = 0.811<br/>samples = 26<br/>value = [0, 0, 2, 0, 5, 6, 2, 3, 7, 1]>, fillcolor="#e539c00d"] ;
37 -> 39 ;
40 [label=<X<SUB>32</SUB> &le; -0.763<br/>gini = 0.785<br/>samples = 22<br/>value = [0, 0, 2, 0, 1, 6, 2, 3, 7, 1]>, fillcolor="#e539c010"] ;
39 -> 40 ;
41 [label=<X<SUB>4</SUB> &le; 8.733<br/>gini = 0.645<br/>samples = 11<br/>value = [0, 0, 0, 0, 1, 0, 1, 2, 6, 1]>, fillcolor="#e539c071"] ;
40 -> 41 ;
42 [label=<X<SUB>3</SUB> &le; 11.376<br/>gini = 0.519<br/>samples = 9<br/>value = [0, 0, 0, 0, 1, 0, 1, 0, 6, 1]>, fillcolor="#e539c09f"] ;
41 -> 42 ;
43 [label=<gini = 0.0<br/>samples = 6<br/>value = [0, 0, 0, 0, 0, 0, 0, 0, 6, 0]>, fillcolor="#e539c0ff"] ;
42 -> 43 ;
44 [label=<X<SUB>10</SUB> &le; -18.43<br/>gini = 0.667<br/>samples = 3<br/>value = [0, 0, 0, 0, 1, 0, 1, 0, 0, 1]>, fillcolor="#39e5c500"] ;
42 -> 44 ;
45 [label=<gini = 0.0<br/>samples = 1<br/>value = [0, 0, 0, 0, 1, 0, 0, 0, 0, 0]>, fillcolor="#39e5c5ff"] ;
44 -> 45 ;
46 [label=<X<SUB>3</SUB> &le; 11.788<br/>gini = 0.5<br/>samples = 2<br/>value = [0, 0, 0, 0, 0, 0, 1, 0, 0, 1]>, fillcolor="#3c39e500"] ;
44 -> 46 ;
47 [label=<gini = 0.0<br/>samples = 1<br/>value = [0, 0, 0, 0, 0, 0, 1, 0, 0, 0]>, fillcolor="#3c39e5ff"] ;
46 -> 47 ;
48 [label=<gini = 0.0<br/>samples = 1<br/>value = [0, 0, 0, 0, 0, 0, 0, 0, 0, 1]>, fillcolor="#e53958ff"] ;
46 -> 48 ;
49 [label=<gini = 0.0<br/>samples = 2<br/>value = [0, 0, 0, 0, 0, 0, 0, 2, 0, 0]>, fillcolor="#a339e5ff"] ;
41 -> 49 ;
50 [label=<X<SUB>10</SUB> &le; 0.481<br/>gini = 0.645<br/>samples = 11<br/>value = [0, 0, 2, 0, 0, 6, 1, 1, 1, 0]>, fillcolor="#399de571"] ;
40 -> 50 ;
51 [label=<X<SUB>24</SUB> &le; -1.524<br/>gini = 0.72<br/>samples = 5<br/>value = [0, 0, 2, 0, 0, 0, 1, 1, 1, 0]>, fillcolor="#7be53940"] ;
50 -> 51 ;
52 [label=<gini = 0.0<br/>samples = 2<br/>value = [0, 0, 2, 0, 0, 0, 0, 0, 0, 0]>, fillcolor="#7be539ff"] ;
51 -> 52 ;
53 [label=<X<SUB>16</SUB> &le; 0.098<br/>gini = 0.667<br/>samples = 3<br/>value = [0, 0, 0, 0, 0, 0, 1, 1, 1, 0]>, fillcolor="#3c39e500"] ;
51 -> 53 ;
54 [label=<gini = 0.0<br/>samples = 1<br/>value = [0, 0, 0, 0, 0, 0, 1, 0, 0, 0]>, fillcolor="#3c39e5ff"] ;
53 -> 54 ;
55 [label=<X<SUB>37</SUB> &le; 1.325<br/>gini = 0.5<br/>samples = 2<br/>value = [0, 0, 0, 0, 0, 0, 0, 1, 1, 0]>, fillcolor="#a339e500"] ;
53 -> 55 ;
56 [label=<gini = 0.0<br/>samples = 1<br/>value = [0, 0, 0, 0, 0, 0, 0, 1, 0, 0]>, fillcolor="#a339e5ff"] ;
55 -> 56 ;
57 [label=<gini = 0.0<br/>samples = 1<br/>value = [0, 0, 0, 0, 0, 0, 0, 0, 1, 0]>, fillcolor="#e539c0ff"] ;
55 -> 57 ;
58 [label=<gini = 0.0<br/>samples = 6<br/>value = [0, 0, 0, 0, 0, 6, 0, 0, 0, 0]>, fillcolor="#399de5ff"] ;
50 -> 58 ;
59 [label=<gini = 0.0<br/>samples = 4<br/>value = [0, 0, 0, 0, 4, 0, 0, 0, 0, 0]>, fillcolor="#39e5c5ff"] ;
39 -> 59 ;
60 [label=<X<SUB>15</SUB> &le; 1.948<br/>gini = 0.592<br/>samples = 44<br/>value = [1, 3, 27, 1, 3, 6, 2, 1, 0, 0]>, fillcolor="#7be5398d"] ;
2 -> 60 ;
61 [label=<X<SUB>3</SUB> &le; -18.146<br/>gini = 0.827<br/>samples = 14<br/>value = [1, 2, 2, 1, 2, 4, 2, 0, 0, 0]>, fillcolor="#399de52a"] ;
60 -> 61 ;
62 [label=<gini = 0.0<br/>samples = 4<br/>value = [0, 0, 0, 0, 0, 4, 0, 0, 0, 0]>, fillcolor="#399de5ff"] ;
61 -> 62 ;
63 [label=<X<SUB>33</SUB> &le; -1.937<br/>gini = 0.82<br/>samples = 10<br/>value = [1, 2, 2, 1, 2, 0, 2, 0, 0, 0]>, fillcolor="#e2e53900"] ;
61 -> 63 ;
64 [label=<gini = 0.0<br/>samples = 2<br/>value = [0, 2, 0, 0, 0, 0, 0, 0, 0, 0]>, fillcolor="#e2e539ff"] ;
63 -> 64 ;
65 [label=<X<SUB>4</SUB> &le; -25.189<br/>gini = 0.781<br/>samples = 8<br/>value = [1, 0, 2, 1, 2, 0, 2, 0, 0, 0]>, fillcolor="#7be53900"] ;
63 -> 65 ;
66 [label=<gini = 0.0<br/>samples = 2<br/>value = [0, 0, 2, 0, 0, 0, 0, 0, 0, 0]>, fillcolor="#7be539ff"] ;
65 -> 66 ;
67 [label=<X<SUB>11</SUB> &le; 0.807<br/>gini = 0.722<br/>samples = 6<br/>value = [1, 0, 0, 1, 2, 0, 2, 0, 0, 0]>, fillcolor="#39e5c500"] ;
65 -> 67 ;
68 [label=<X<SUB>6</SUB> &le; -7.19<br/>gini = 0.625<br/>samples = 4<br/>value = [1, 0, 0, 1, 2, 0, 0, 0, 0, 0]>, fillcolor="#39e5c555"] ;
67 -> 68 ;
69 [label=<X<SUB>29</SUB> &le; 1.304<br/>gini = 0.5<br/>samples = 2<br/>value = [1, 0, 0, 1, 0, 0, 0, 0, 0, 0]>, fillcolor="#e5813900"] ;
68 -> 69 ;
70 [label=<gini = 0.0<br/>samples = 1<br/>value = [1, 0, 0, 0, 0, 0, 0, 0, 0, 0]>, fillcolor="#e58139ff"] ;
69 -> 70 ;
71 [label=<gini = 0.0<br/>samples = 1<br/>value = [0, 0, 0, 1, 0, 0, 0, 0, 0, 0]>, fillcolor="#39e55eff"] ;
69 -> 71 ;
72 [label=<gini = 0.0<br/>samples = 2<br/>value = [0, 0, 0, 0, 2, 0, 0, 0, 0, 0]>, fillcolor="#39e5c5ff"] ;
68 -> 72 ;
73 [label=<gini = 0.0<br/>samples = 2<br/>value = [0, 0, 0, 0, 0, 0, 2, 0, 0, 0]>, fillcolor="#3c39e5ff"] ;
67 -> 73 ;
74 [label=<X<SUB>1</SUB> &le; 125.302<br/>gini = 0.298<br/>samples = 30<br/>value = [0, 1, 25, 0, 1, 2, 0, 1, 0, 0]>, fillcolor="#7be539d1"] ;
60 -> 74 ;
75 [label=<X<SUB>4</SUB> &le; 2.238<br/>gini = 0.199<br/>samples = 28<br/>value = [0, 1, 25, 0, 1, 0, 0, 1, 0, 0]>, fillcolor="#7be539e3"] ;
74 -> 75 ;
76 [label=<gini = 0.0<br/>samples = 24<br/>value = [0, 0, 24, 0, 0, 0, 0, 0, 0, 0]>, fillcolor="#7be539ff"] ;
75 -> 76 ;
77 [label=<X<SUB>38</SUB> &le; -3.151<br/>gini = 0.75<br/>samples = 4<br/>value = [0, 1, 1, 0, 1, 0, 0, 1, 0, 0]>, fillcolor="#e2e53900"] ;
75 -> 77 ;
78 [label=<gini = 0.0<br/>samples = 1<br/>value = [0, 1, 0, 0, 0, 0, 0, 0, 0, 0]>, fillcolor="#e2e539ff"] ;
77 -> 78 ;
79 [label=<X<SUB>39</SUB> &le; 0.021<br/>gini = 0.667<br/>samples = 3<br/>value = [0, 0, 1, 0, 1, 0, 0, 1, 0, 0]>, fillcolor="#7be53900"] ;
77 -> 79 ;
80 [label=<gini = 0.0<br/>samples = 1<br/>value = [0, 0, 0, 0, 1, 0, 0, 0, 0, 0]>, fillcolor="#39e5c5ff"] ;
79 -> 80 ;
81 [label=<X<SUB>22</SUB> &le; 1.969<br/>gini = 0.5<br/>samples = 2<br/>value = [0, 0, 1, 0, 0, 0, 0, 1, 0, 0]>, fillcolor="#7be53900"] ;
79 -> 81 ;
82 [label=<gini = 0.0<br/>samples = 1<br/>value = [0, 0, 0, 0, 0, 0, 0, 1, 0, 0]>, fillcolor="#a339e5ff"] ;
81 -> 82 ;
83 [label=<gini = 0.0<br/>samples = 1<br/>value = [0, 0, 1, 0, 0, 0, 0, 0, 0, 0]>, fillcolor="#7be539ff"] ;
81 -> 83 ;
84 [label=<gini = 0.0<br/>samples = 2<br/>value = [0, 0, 0, 0, 0, 2, 0, 0, 0, 0]>, fillcolor="#399de5ff"] ;
74 -> 84 ;
85 [label=<X<SUB>18</SUB> &le; 0.91<br/>gini = 0.498<br/>samples = 40<br/>value = [0, 27, 0, 0, 8, 1, 3, 1, 0, 0]>, fillcolor="#e2e53997"] ;
1 -> 85 ;
86 [label=<X<SUB>1</SUB> &le; 127.857<br/>gini = 0.293<br/>samples = 30<br/>value = [0, 25, 0, 0, 1, 1, 3, 0, 0, 0]>, fillcolor="#e2e539d0"] ;
85 -> 86 ;
87 [label=<gini = 0.0<br/>samples = 25<br/>value = [0, 25, 0, 0, 0, 0, 0, 0, 0, 0]>, fillcolor="#e2e539ff"] ;
86 -> 87 ;
88 [label=<X<SUB>17</SUB> &le; 2.632<br/>gini = 0.56<br/>samples = 5<br/>value = [0, 0, 0, 0, 1, 1, 3, 0, 0, 0]>, fillcolor="#3c39e57f"] ;
86 -> 88 ;
89 [label=<gini = 0.0<br/>samples = 3<br/>value = [0, 0, 0, 0, 0, 0, 3, 0, 0, 0]>, fillcolor="#3c39e5ff"] ;
88 -> 89 ;
90 [label=<X<SUB>25</SUB> &le; 3.09<br/>gini = 0.5<br/>samples = 2<br/>value = [0, 0, 0, 0, 1, 1, 0, 0, 0, 0]>, fillcolor="#39e5c500"] ;
88 -> 90 ;
91 [label=<gini = 0.0<br/>samples = 1<br/>value = [0, 0, 0, 0, 0, 1, 0, 0, 0, 0]>, fillcolor="#399de5ff"] ;
90 -> 91 ;
92 [label=<gini = 0.0<br/>samples = 1<br/>value = [0, 0, 0, 0, 1, 0, 0, 0, 0, 0]>, fillcolor="#39e5c5ff"] ;
90 -> 92 ;
93 [label=<X<SUB>28</SUB> &le; -0.762<br/>gini = 0.46<br/>samples = 10<br/>value = [0, 2, 0, 0, 7, 0, 0, 1, 0, 0]>, fillcolor="#39e5c59f"] ;
85 -> 93 ;
94 [label=<gini = 0.0<br/>samples = 2<br/>value = [0, 2, 0, 0, 0, 0, 0, 0, 0, 0]>, fillcolor="#e2e539ff"] ;
93 -> 94 ;
95 [label=<X<SUB>37</SUB> &le; 4.637<br/>gini = 0.219<br/>samples = 8<br/>value = [0, 0, 0, 0, 7, 0, 0, 1, 0, 0]>, fillcolor="#39e5c5db"] ;
93 -> 95 ;
96 [label=<gini = 0.0<br/>samples = 7<br/>value = [0, 0, 0, 0, 7, 0, 0, 0, 0, 0]>, fillcolor="#39e5c5ff"] ;
95 -> 96 ;
97 [label=<gini = 0.0<br/>samples = 1<br/>value = [0, 0, 0, 0, 0, 0, 0, 1, 0, 0]>, fillcolor="#a339e5ff"] ;
95 -> 97 ;
98 [label=<X<SUB>1</SUB> &le; 142.676<br/>gini = 0.779<br/>samples = 123<br/>value = [31, 3, 4, 28, 0, 2, 22, 0, 0, 33]>, fillcolor="#e5395806"] ;
0 -> 98 [labeldistance=2.5, labelangle=-45, headlabel="False"] ;
99 [label=<X<SUB>1</SUB> &le; 78.733<br/>gini = 0.757<br/>samples = 109<br/>value = [30, 3, 4, 28, 0, 2, 9, 0, 0, 33]>, fillcolor="#e539580a"] ;
98 -> 99 ;
100 [label=<X<SUB>24</SUB> &le; -4.325<br/>gini = 0.697<br/>samples = 60<br/>value = [26, 2, 4, 19, 0, 1, 3, 0, 0, 5]>, fillcolor="#e581392c"] ;
99 -> 100 ;
101 [label=<X<SUB>7</SUB> &le; 7.915<br/>gini = 0.438<br/>samples = 19<br/>value = [2, 1, 0, 14, 0, 0, 1, 0, 0, 1]>, fillcolor="#39e55eb4"] ;
100 -> 101 ;
102 [label=<X<SUB>9</SUB> &le; -5.663<br/>gini = 0.133<br/>samples = 14<br/>value = [1, 0, 0, 13, 0, 0, 0, 0, 0, 0]>, fillcolor="#39e55eeb"] ;
101 -> 102 ;
103 [label=<gini = 0.0<br/>samples = 1<br/>value = [1, 0, 0, 0, 0, 0, 0, 0, 0, 0]>, fillcolor="#e58139ff"] ;
102 -> 103 ;
104 [label=<gini = 0.0<br/>samples = 13<br/>value = [0, 0, 0, 13, 0, 0, 0, 0, 0, 0]>, fillcolor="#39e55eff"] ;
102 -> 104 ;
105 [label=<X<SUB>2</SUB> &le; -49.188<br/>gini = 0.8<br/>samples = 5<br/>value = [1, 1, 0, 1, 0, 0, 1, 0, 0, 1]>, fillcolor="#e5813900"] ;
101 -> 105 ;
106 [label=<gini = 0.0<br/>samples = 1<br/>value = [0, 0, 0, 1, 0, 0, 0, 0, 0, 0]>, fillcolor="#39e55eff"] ;
105 -> 106 ;
107 [label=<X<SUB>31</SUB> &le; 0.433<br/>gini = 0.75<br/>samples = 4<br/>value = [1, 1, 0, 0, 0, 0, 1, 0, 0, 1]>, fillcolor="#e5813900"] ;
105 -> 107 ;
108 [label=<gini = 0.0<br/>samples = 1<br/>value = [0, 1, 0, 0, 0, 0, 0, 0, 0, 0]>, fillcolor="#e2e539ff"] ;
107 -> 108 ;
109 [label=<X<SUB>36</SUB> &le; -2.803<br/>gini = 0.667<br/>samples = 3<br/>value = [1, 0, 0, 0, 0, 0, 1, 0, 0, 1]>, fillcolor="#e5813900"] ;
107 -> 109 ;
110 [label=<gini = 0.0<br/>samples = 1<br/>value = [1, 0, 0, 0, 0, 0, 0, 0, 0, 0]>, fillcolor="#e58139ff"] ;
109 -> 110 ;
111 [label=<X<SUB>25</SUB> &le; 1.767<br/>gini = 0.5<br/>samples = 2<br/>value = [0, 0, 0, 0, 0, 0, 1, 0, 0, 1]>, fillcolor="#3c39e500"] ;
109 -> 111 ;
112 [label=<gini = 0.0<br/>samples = 1<br/>value = [0, 0, 0, 0, 0, 0, 0, 0, 0, 1]>, fillcolor="#e53958ff"] ;
111 -> 112 ;
113 [label=<gini = 0.0<br/>samples = 1<br/>value = [0, 0, 0, 0, 0, 0, 1, 0, 0, 0]>, fillcolor="#3c39e5ff"] ;
111 -> 113 ;
114 [label=<X<SUB>2</SUB> &le; -31.83<br/>gini = 0.62<br/>samples = 41<br/>value = [24, 1, 4, 5, 0, 1, 2, 0, 0, 4]>, fillcolor="#e5813987"] ;
100 -> 114 ;
115 [label=<X<SUB>0</SUB> &le; -82.818<br/>gini = 0.66<br/>samples = 10<br/>value = [1, 0, 4, 0, 0, 1, 0, 0, 0, 4]>, fillcolor="#7be53900"] ;
114 -> 115 ;
116 [label=<X<SUB>35</SUB> &le; 1.321<br/>gini = 0.5<br/>samples = 6<br/>value = [1, 0, 4, 0, 0, 1, 0, 0, 0, 0]>, fillcolor="#7be53999"] ;
115 -> 116 ;
117 [label=<gini = 0.0<br/>samples = 4<br/>value = [0, 0, 4, 0, 0, 0, 0, 0, 0, 0]>, fillcolor="#7be539ff"] ;
116 -> 117 ;
118 [label=<X<SUB>26</SUB> &le; -0.176<br/>gini = 0.5<br/>samples = 2<br/>value = [1, 0, 0, 0, 0, 1, 0, 0, 0, 0]>, fillcolor="#e5813900"] ;
116 -> 118 ;
119 [label=<gini = 0.0<br/>samples = 1<br/>value = [0, 0, 0, 0, 0, 1, 0, 0, 0, 0]>, fillcolor="#399de5ff"] ;
118 -> 119 ;
120 [label=<gini = 0.0<br/>samples = 1<br/>value = [1, 0, 0, 0, 0, 0, 0, 0, 0, 0]>, fillcolor="#e58139ff"] ;
118 -> 120 ;
121 [label=<gini = 0.0<br/>samples = 4<br/>value = [0, 0, 0, 0, 0, 0, 0, 0, 0, 4]>, fillcolor="#e53958ff"] ;
115 -> 121 ;
122 [label=<X<SUB>15</SUB> &le; -0.644<br/>gini = 0.418<br/>samples = 31<br/>value = [23, 1, 0, 5, 0, 0, 2, 0, 0, 0]>, fillcolor="#e58139b1"] ;
114 -> 122 ;
123 [label=<X<SUB>7</SUB> &le; 11.58<br/>gini = 0.571<br/>samples = 7<br/>value = [1, 0, 0, 4, 0, 0, 2, 0, 0, 0]>, fillcolor="#39e55e66"] ;
122 -> 123 ;
124 [label=<X<SUB>8</SUB> &le; -9.695<br/>gini = 0.32<br/>samples = 5<br/>value = [1, 0, 0, 4, 0, 0, 0, 0, 0, 0]>, fillcolor="#39e55ebf"] ;
123 -> 124 ;
125 [label=<gini = 0.0<br/>samples = 1<br/>value = [1, 0, 0, 0, 0, 0, 0, 0, 0, 0]>, fillcolor="#e58139ff"] ;
124 -> 125 ;
126 [label=<gini = 0.0<br/>samples = 4<br/>value = [0, 0, 0, 4, 0, 0, 0, 0, 0, 0]>, fillcolor="#39e55eff"] ;
124 -> 126 ;
127 [label=<gini = 0.0<br/>samples = 2<br/>value = [0, 0, 0, 0, 0, 0, 2, 0, 0, 0]>, fillcolor="#3c39e5ff"] ;
123 -> 127 ;
128 [label=<X<SUB>22</SUB> &le; -6.385<br/>gini = 0.156<br/>samples = 24<br/>value = [22, 1, 0, 1, 0, 0, 0, 0, 0, 0]>, fillcolor="#e58139e9"] ;
122 -> 128 ;
129 [label=<X<SUB>30</SUB> &le; -2.251<br/>gini = 0.5<br/>samples = 2<br/>value = [0, 1, 0, 1, 0, 0, 0, 0, 0, 0]>, fillcolor="#e2e53900"] ;
128 -> 129 ;
130 [label=<gini = 0.0<br/>samples = 1<br/>value = [0, 0, 0, 1, 0, 0, 0, 0, 0, 0]>, fillcolor="#39e55eff"] ;
129 -> 130 ;
131 [label=<gini = 0.0<br/>samples = 1<br/>value = [0, 1, 0, 0, 0, 0, 0, 0, 0, 0]>, fillcolor="#e2e539ff"] ;
129 -> 131 ;
132 [label=<gini = 0.0<br/>samples = 22<br/>value = [22, 0, 0, 0, 0, 0, 0, 0, 0, 0]>, fillcolor="#e58139ff"] ;
128 -> 132 ;
133 [label=<X<SUB>5</SUB> &le; 11.635<br/>gini = 0.617<br/>samples = 49<br/>value = [4, 1, 0, 9, 0, 1, 6, 0, 0, 28]>, fillcolor="#e5395879"] ;
99 -> 133 ;
134 [label=<X<SUB>13</SUB> &le; 3.369<br/>gini = 0.326<br/>samples = 32<br/>value = [3, 0, 0, 2, 0, 1, 0, 0, 0, 26]>, fillcolor="#e53958ca"] ;
133 -> 134 ;
135 [label=<X<SUB>31</SUB> &le; -0.905<br/>gini = 0.19<br/>samples = 29<br/>value = [0, 0, 0, 2, 0, 1, 0, 0, 0, 26]>, fillcolor="#e53958e3"] ;
134 -> 135 ;
136 [label=<gini = 0.0<br/>samples = 2<br/>value = [0, 0, 0, 2, 0, 0, 0, 0, 0, 0]>, fillcolor="#39e55eff"] ;
135 -> 136 ;
137 [label=<X<SUB>21</SUB> &le; -3.179<br/>gini = 0.071<br/>samples = 27<br/>value = [0, 0, 0, 0, 0, 1, 0, 0, 0, 26]>, fillcolor="#e53958f5"] ;
135 -> 137 ;
138 [label=<gini = 0.0<br/>samples = 1<br/>value = [0, 0, 0, 0, 0, 1, 0, 0, 0, 0]>, fillcolor="#399de5ff"] ;
137 -> 138 ;
139 [label=<gini = 0.0<br/>samples = 26<br/>value = [0, 0, 0, 0, 0, 0, 0, 0, 0, 26]>, fillcolor="#e53958ff"] ;
137 -> 139 ;
140 [label=<gini = 0.0<br/>samples = 3<br/>value = [3, 0, 0, 0, 0, 0, 0, 0, 0, 0]>, fillcolor="#e58139ff"] ;
134 -> 140 ;
141 [label=<X<SUB>12</SUB> &le; -6.555<br/>gini = 0.685<br/>samples = 17<br/>value = [1, 1, 0, 7, 0, 0, 6, 0, 0, 2]>, fillcolor="#39e55e17"] ;
133 -> 141 ;
142 [label=<X<SUB>11</SUB> &le; -2.357<br/>gini = 0.278<br/>samples = 6<br/>value = [0, 0, 0, 1, 0, 0, 5, 0, 0, 0]>, fillcolor="#3c39e5cc"] ;
141 -> 142 ;
143 [label=<gini = 0.0<br/>samples = 1<br/>value = [0, 0, 0, 1, 0, 0, 0, 0, 0, 0]>, fillcolor="#39e55eff"] ;
142 -> 143 ;
144 [label=<gini = 0.0<br/>samples = 5<br/>value = [0, 0, 0, 0, 0, 0, 5, 0, 0, 0]>, fillcolor="#3c39e5ff"] ;
142 -> 144 ;
145 [label=<X<SUB>3</SUB> &le; 45.056<br/>gini = 0.645<br/>samples = 11<br/>value = [1, 1, 0, 6, 0, 0, 1, 0, 0, 2]>, fillcolor="#39e55e71"] ;
141 -> 145 ;
146 [label=<X<SUB>19</SUB> &le; 5.611<br/>gini = 0.245<br/>samples = 7<br/>value = [0, 0, 0, 6, 0, 0, 1, 0, 0, 0]>, fillcolor="#39e55ed4"] ;
145 -> 146 ;
147 [label=<gini = 0.0<br/>samples = 6<br/>value = [0, 0, 0, 6, 0, 0, 0, 0, 0, 0]>, fillcolor="#39e55eff"] ;
146 -> 147 ;
148 [label=<gini = 0.0<br/>samples = 1<br/>value = [0, 0, 0, 0, 0, 0, 1, 0, 0, 0]>, fillcolor="#3c39e5ff"] ;
146 -> 148 ;
149 [label=<X<SUB>36</SUB> &le; -3.282<br/>gini = 0.625<br/>samples = 4<br/>value = [1, 1, 0, 0, 0, 0, 0, 0, 0, 2]>, fillcolor="#e5395855"] ;
145 -> 149 ;
150 [label=<gini = 0.0<br/>samples = 2<br/>value = [0, 0, 0, 0, 0, 0, 0, 0, 0, 2]>, fillcolor="#e53958ff"] ;
149 -> 150 ;
151 [label=<X<SUB>29</SUB> &le; 3.617<br/>gini = 0.5<br/>samples = 2<br/>value = [1, 1, 0, 0, 0, 0, 0, 0, 0, 0]>, fillcolor="#e5813900"] ;
149 -> 151 ;
152 [label=<gini = 0.0<br/>samples = 1<br/>value = [0, 1, 0, 0, 0, 0, 0, 0, 0, 0]>, fillcolor="#e2e539ff"] ;
151 -> 152 ;
153 [label=<gini = 0.0<br/>samples = 1<br/>value = [1, 0, 0, 0, 0, 0, 0, 0, 0, 0]>, fillcolor="#e58139ff"] ;
151 -> 153 ;
154 [label=<X<SUB>35</SUB> &le; 3.245<br/>gini = 0.133<br/>samples = 14<br/>value = [1, 0, 0, 0, 0, 0, 13, 0, 0, 0]>, fillcolor="#3c39e5eb"] ;
98 -> 154 ;
155 [label=<gini = 0.0<br/>samples = 13<br/>value = [0, 0, 0, 0, 0, 0, 13, 0, 0, 0]>, fillcolor="#3c39e5ff"] ;
154 -> 155 ;
156 [label=<gini = 0.0<br/>samples = 1<br/>value = [1, 0, 0, 0, 0, 0, 0, 0, 0, 0]>, fillcolor="#e58139ff"] ;
154 -> 156 ;
}